5
12
32
12
0.12528790917269905
-0.13203070619194748
0.05680796063586153
-0.005293164135123344
-0.12915213820618496
0.1887631607323867
0.18773653107344734
0.17072682246202353
-0.11247320638258303
0.09736955842603172
-0.15208723974154384
0.07005308387711486
-7.456535190219924E-4
12
0.14187518799971086
0.16439601539173326
-0.2716132817381833
-0.07572372241536016
0.12551565145818952
0.12368541543956547
-0.2141556207029582
0.05916384976682897
0.04614262430879972
0.09529051773206049
0.12898115069086366
-0.030218893182680198
4.7105430597978734E-4
12
-0.25358282816236827
-0.1509786617241669
-0.2047197749552503
0.09661758545663063
0.1972460982685503
0.018514898155215176
0.02364760398301576
0.03378513998177869
-0.24266550122478417
-0.015958485151298534
-0.16340860142671926
-0.19304743211359604
0.0
12
0.2749179946334854
0.13237687375457824
0.18255121300378657
0.1641171701963783
0.20852885790020625
-0.2127233430017469
-0.2668896110776103
0.19741001406639533
0.027201823300393432
0.23953990521162877
-0.23834734904871083
-0.08543074498054577
6.658840311902286E-4
12
-0.22827112557800994
-0.003531175510459712
0.23745478982884044
0.03743454428844364
0.1438768863535137
-0.10658931585565232
-0.27989206116368726
0.05709855046331778
-0.21605960655515388
0.10433011713091946
0.1322816811444048
0.23797793356606967
5.086528250725984E-4
12
-0.026438381741075847
0.24742563194954728
-0.04166143700533381
-0.04571692184527338
-0.17651501999020738
-0.0815443387562
-0.007762632662147018
0.2273676400301314
0.25193079841771343
-0.1710023584148535
-0.2547218122526528
-0.12701331034838453
1.3320332281178493E-4
12
-0.27893469313379965
0.1741621270548066
0.21589600251949934
0.109818334205631
0.13739138666194262
-0.1213203060356915
0.2288265677186421
-0.16472510238718
0.054269668838866414
-0.2546992493060247
0.1509874365010392
0.1817009338730633
-3.642183372243177E-4
12
0.11717359151469736
0.2639662502421555
0.26431582337472637
0.12213038421383805
0.1735301151204829
-0.03350306245614173
0.16289152934091214
0.12148057850898605
-0.25588142265463004
0.07551345339766416
0.1543535468884184
0.09447403976100784
-1.8320278060981316E-4
12
-0.17514630395459915
-0.2712469685976121
-0.09355327842199256
0.2948642825194634
-0.07755769258998002
0.2370183416280405
0.2775000104057792
-0.1593259805849741
-0.083402477181587
0.009913008919808319
0.012092033915632298
0.18526962800583033
-1.816393114980675E-5
12
-0.019916820842279363
-0.17533175114729865
0.18902714136908455
0.06437332490469881
0.2585632581184911
0.060796597208118267
0.2363525837092003
0.16641939053568458
-0.26694996515001
-0.10519030112057971
-0.015308484260663821
0.14049538536983844
-2.793882599149924E-5
12
0.2889847195504145
0.16485271559623788
-0.10174329428555014
0.10983186725402931
-0.2110089329320068
-0.013290886009908057
0.09516855756961899
0.043428883779621556
-0.17726993716430534
0.2228272629234052
0.15230325909533074
0.016617914466319154
7.49784770780872E-4
12
0.19615995849333262
-0.10288580974245072
-0.10055462580967853
0.023347102115494532
-0.031617377135603135
-0.09337232475392176
-0.06186277354219838
0.14624238226195027
-0.23613860553447116
-0.2711994931191302
-0.18534506544556067
-0.00405977929064041
-1.0085907762682399E-4
12
0.10648534049055984
-0.1739348445793532
-0.2106500394588351
-0.12416370752188871
-0.2731038607178239
-0.03152850188723262
-0.2687861780403433
-0.16190970214569683
-0.046417450358413395
-0.04978916073931305
-0.26352085404753317
-0.28373740284898524
0.0
12
0.1295858050264939
-0.05980339022570938
0.18872196930443874
-0.1495811420480547
-0.14165441590459632
0.119932372334344
0.2799375786558418
-0.2543628812476716
-0.1733767665373399
-0.021596343948797527
0.04663434525904845
-0.1426621028360285
-5.761265424036046E-4
12
0.26364460576371157
-0.025554249671551277
-0.2840921307026554
0.09597973240660992
-0.14706640816657168
-0.033020644901989485
0.1954119261762658
0.018388683081817268
0.08872450793901862
-0.0018427062305011836
-0.09222307164042334
0.005624730370131193
-6.049770792387058E-5
12
0.13494012032772554
0.2229734043697883
-0.2847836665229636
-0.2679604518899147
-0.0727080343072413
-0.15419290586126996
-0.2109733897045411
-0.256835724567962
0.14580229630047772
0.1390232196785187
-0.07003755588100728
-0.03154219697030346
-8.43710974386732E-5
12
-0.20911116975973712
-0.15702883748197835
-0.16775648129908682
-0.2758745866981455
-0.0763938099760603
-0.1771210357834597
0.011243248015020474
-0.25934915028824157
-0.11994907384735885
-0.20480312265441428
0.016567042509369214
-0.2597279143059329
0.0
12
0.09457912462548916
0.11581676993319573
0.13232216718312553
0.00908127145901042
0.008205070330160484
0.27872198444673113
-0.20419270670505354
-0.0346732875042851
0.18413376126069742
-0.2680650739025915
0.010737803985123523
0.13605524418650056
1.4170758756284167E-4
12
0.28638751817807767
0.10564717437678627
0.14163331102028076
-0.15019345060391315
0.07542673020395804
0.04721665732368969
-0.09966045445138877
0.16201078291605006
0.0638544607188962
0.11761489046870081
-0.16387203355995592
-0.24592098748878966
-2.7916939475418692E-5
12
0.04948006632361828
0.08267931426744554
-0.2711363112233921
-0.3025693704712383
-0.23648240192771355
-0.251825830248674
0.08030313115857679
0.16134115382693257
-0.016075099992809018
0.22519056664564663
0.15939772217094006
0.00919450392452115
-2.9607123701698283E-4
12
-0.030552525179344276
0.2555860107648934
0.1690236777183941
-0.061791524706964085
0.25731248181364297
0.04622908553884188
-0.14222452160574253
-0.06409920414136404
-0.1452220607515712
-0.2658311407551383
-0.2192108888941487
-0.18542860192211547
-7.898678359251696E-5
12
-0.2803128691878815
-0.13715703607539007
0.15968898124831812
-0.16345458641955282
0.031992976974726244
0.2894704437200278
0.02023034176538723
0.24315072259784834
0.2240207416895922
-0.11390581412815669
-0.15682516396035048
0.0471384146112077
3.629060156602336E-5
12
-0.07144308299729522
0.14714937512942977
0.08925308956491831
-0.06724149347586388
0.11576094993778355
-0.17516362279935663
-0.27655715171563733
0.051039113383652565
-0.14340356323901796
0.023792493426383714
-0.07169194745296308
0.2149806752982311
1.5102957569230942E-4
12
-0.08984120690971771
0.011943479447794197
0.15393199216288095
0.2020149689421514
0.2745967851682856
0.2571809394081061
0.1236810791915918
-0.22924849235126304
-0.14535747108430402
0.08969183456397534
-0.2537626274131877
0.05213672838811256
-2.6731532709893156E-4
12
0.27889293091151907
0.02949511863035633
0.06495128520661647
-0.25617111742952514
0.0768627646354897
-0.18688595154282298
0.09638020580006214
0.1835050188502753
0.1132586895097555
-0.1636415481746401
0.18964650571421984
-0.04567067302871228
-3.082631967205769E-4
12
0.28277666220899045
-0.07599128441108563
-0.2776127557680129
-0.19637276880359936
0.04649337175938797
0.24459388538557797
-0.20830924391967298
0.029472882297279856
0.0729256144769865
-0.18174686155738876
0.2083441513340646
-0.2722159540886252
6.022943110479961E-6
12
-0.14131001805111237
-0.028873207654728717
0.1506124136757295
-0.014260233372286346
-0.12531746058397594
0.21788012333602297
-0.08395413293603753
0.12080374107991954
0.04364518613655983
-0.25918453433777144
0.007692157655499988
-0.13112146917679313
-3.0654502221827136E-5
12
0.05198854747129626
0.21139543277180947
-0.270084247744888
0.20855221276930455
0.022024896871796047
-0.14209058344058156
-0.25433159744798983
-0.0026919951863336533
0.05491581861384728
0.035158822889269054
-0.03159618155401487
0.04626748432855817
-6.050074523794559E-4
12
-0.0193963203605394
-0.1921906440387826
-0.11123981774114443
0.15280486710189461
0.1309526917537036
0.05096164941498475
-0.13288847565189107
0.002859813080134857
0.25756540015273105
0.2832132094187083
0.2603569679475576
0.23465363840972236
-1.952021072537995E-4
12
0.1474384479680192
-0.2240125087810807
-0.1036592082842675
-0.0714670092133882
-0.18065392861869223
0.2566830793292433
0.013090976001858207
0.1619946068268281
-0.25533704979205907
-0.014628351749460627
0.2401905333814679
0.1422775883002513
-2.981661596118776E-4
12
-0.23165848394707148
-0.06518372591385029
0.056159374025591555
0.2747869634427494
0.11663036530398152
-0.08862468673713307
-0.2678063797140016
-0.24796467162043734
-0.19715889554347985
0.09420031009936441
0.20829112576317718
0.24019714396595807
1.5169702655476079E-4
12
-0.07554967474490536
-0.26226036496478705
0.09867531740635777
-0.056094833575990294
0.060275272905615636
0.209290462578295
-0.032425667427022985
-0.14773363583819996
-0.028488791843127068
0.26672273340778146
-0.138096150062807
0.26955632817520536
2.2540080724467465E-4
16
32
0.13226934665447077
0.010854720625962492
-0.049305053456916076
-0.10689437527154594
-0.07488901068998206
0.08001222805162998
0.12337026471719266
-0.09324346344958062
-0.08125855473844631
0.010329251379293561
-0.08892478828706521
0.020178223875986608
0.08686425965424781
-0.17247966604026932
0.04339889846496139
-0.018969808827047043
-0.17055018331544058
0.02068014541115475
0.09441122512716295
0.0035159341849913656
7.093831848899033E-4
0.1527691768829318
0.10927871025824276
-0.00734209153795296
-0.01791025708231925
0.10295002762233986
-0.16297588607017988
-0.15963555950897712
0.08810587971043757
-7.147872852422925E-4
-0.10945434228537573
0.12919768979389604
9.638907517173998E-5
32
0.15518622195047532
0.1641113719261884
-0.056531994644503335
-0.07518977463820084
-0.1250757647994221
0.01798074839692809
0.057744831168399846
-0.1326665316873187
0.0884648403461326
0.07160798569175277
0.06957494774568644
0.027413851265634157
-0.05739251211890632
-0.15220308063948138
0.03785289823455721
0.10731407386603373
0.13969595066031293
0.09179471854944986
-0.05590986193608511
0.16671872223512563
-0.11219287938213775
0.14979053719398974
-0.17481592513175087
0.011715805021302655
0.11225754516437698
0.12380581752347869
0.07726551514198556
-0.12396132983514413
0.046195115564058975
-0.06752639325451075
0.006158732146072072
0.05432798261737017
-5.04356757687631E-4
32
-0.03395066883234554
0.14102193989815462
0.17244792946334062
-0.036641394000919286
-0.11742329442832945
0.04141868941523172
-0.14471822112932
0.14426364557696966
0.05886227522035075
-0.15095812580340917
-0.11056963147834185
0.1270608538442625
-0.11950123551275743
-0.15875385796462416
0.01538988868195211
0.07123801320692741
0.04856259457354817
0.06852712044513092
-0.18075851377654462
-0.10007555765364581
0.02999190141187606
-0.11078374801757242
0.12525649840648267
0.17843224387447784
0.06846989185262427
0.016557967773492405
-0.059199959699709474
0.05800474139467506
0.11477169702733407
-0.11329555830941289
0.101491015991663
-0.1349124376118597
-6.62418851815204E-4
32
0.05636931834596341
-0.17286244371844525
0.1058866022585561
0.026632835918412874
-0.03885008250770142
-0.00847097786128217
-0.013987997697180166
-0.1418942249115199
0.16556825723405885
-0.15805001810298855
-0.11329449040351275
0.06917483220752078
-0.09166991181008877
0.007392236517635425
-0.12959969417295253
-0.09550666587058099
0.12158297372783176
-0.12774886800415725
-0.1359579255924575
-0.13733532674864202
-0.06564177780068595
-0.13343744922109688
0.16835510168800832
0.07404346229174916
0.01187856768554516
-0.09603021402278332
0.029141247754387242
0.11848110265468763
-0.13226525053359978
-0.0794757379861819
-0.05137555953686226
0.10158877221206683
0.0
32
-0.08807208696748155
-0.1655577679445929
-0.0750727304792337
0.0511839532065472
-0.031424106009529024
0.09313151979125844
0.1609325641202434
0.06054530253503694
0.14071104915935623
-0.15804509150442345
0.058230270552498575
-0.1130183446197094
-0.026160069450310113
-0.02963394465826519
-0.13749338424632815
0.14639767820601304
0.14094559418194882
-0.1761043528421453
-0.12165914167426617
-0.08201925394127575
0.16544799563504597
-0.1562210088954931
0.0587785556318233
-0.13161053821936444
-0.02413805683515457
0.06783190288468956
-0.0804179673836707
0.14244010009356098
0.10525931038684576
0.04484924561624495
-0.058979257747047105
-0.05191119855377264
-0.0012643117970735323
32
-0.10691822387220261
0.11084991756651703
-0.0809579636229691
0.1294574765053035
-0.053075403212527024
0.06195908113205178
0.12725312573539804
-0.18489690439054554
0.10196118322184254
-0.15883779132969628
-0.0662460016220694
0.03416942473365361
-0.12609201216892124
-0.013751634219464026
0.13889616694973886
-0.1416024894277563
-0.09037893276677583
-0.1587909058743857
-0.13309040849876516
-0.08790738888653636
0.16318103306547257
-0.012203372373594364
0.08266710555974754
0.09913478725036232
-0.08592216695455199
-0.15501572950143164
0.09186826911524938
-0.0695724997355288
0.14198872835353035
0.0765880014001667
-0.019917455075786607
-0.15992170264212707
-2.3606894852525062E-4
32
-0.0794505349125179
-0.1638578977628048
-0.030142277553369488
-0.02739798695330953
-0.051385016837587144
-0.007738446491289926
0.17737545475303787
0.008103498847572877
0.0390817636555093
0.035538631854110644
-0.03564759884468599
-0.04763442613892913
-0.040754835569166384
-0.13553454996245343
-0.14965530321333878
-0.04557908133443967
0.1438772446706696
-0.11010729164490818
-0.0642349766580215
0.0966833882857052
0.02459511241168255
-0.09014850456006474
0.10244092318970997
0.05516308153334354
0.025652104307814918
0.15016387803473358
0.06842130974091024
0.12989175230514186
0.16914652090207272
-0.03480500606097035
-0.14715959778743767
-0.0801524425787075
4.7111791066992517E-4
32
0.0646047703981436
0.021702606897996815
-0.1695231067640786
-0.009114102549610474
-0.034707740087902936
0.12872143814368253
0.07194911690061401
-0.11094988229427596
0.07899085429913226
-0.1376004514991998
-0.10131488091701878
0.14118367119247474
0.15970480874264753
-0.012827384124667485
-0.050328062837396756
0.031322860829542234
-0.0813511410360151
-0.08039778459105473
-0.1490946135845453
-0.04802711886321726
-0.12038136707678618
-0.05742141958862873
0.09365042383175207
-0.16551329774360066
-0.11905394154622344
0.07030710729276596
0.17140510052734767
0.05829666211823021
0.04976097699068267
-0.1511471545703137
-0.09793405039029317
-0.015962030957973924
0.0
32
0.17517326606848424
0.04343565350008912
-0.15325948086069482
-0.07007569284748517
0.15476098625584192
0.07457823563028929
0.13064044119479087
0.1192585631819921
0.12660277406043935
-0.04019983442113885
0.021585836507545447
0.1565927636934797
0.15864259225633962
0.0182841136722723
0.05242213086466678
0.01689928694016789
-0.14185033950550793
-0.05531514702111579
-0.1492724121951705
-0.12151443750279475
0.12882053688349637
0.024755711537601616
-0.0652956710054432
0.1450311788339551
-0.0890510934002623
-0.08626139962393642
-0.16053987674865944
0.07500828427123796
-0.11329985771982172
-0.15249628001202442
0.0916605685771143
-0.0018553463821664238
-0.001527877136755883
32
-0.07489956074261866
0.11959535092122041
-8.878506111610005E-4
0.18549273862929222
0.001817298138219066
-0.1574353784545649
-0.05580010681355633
-0.08463171228543297
-0.002475868915872827
-0.01805446605046614
0.13110901028955244
-0.14597448825388615
0.009218037336582847
0.15211175480219633
-0.013684573640190273
0.09998799929034916
0.11157212782897868
0.14844966273824578
0.061191950300241264
0.17505111212678132
-0.034270182735335795
0.08249456403057098
-0.1289353221755109
-0.06765374045267998
0.1190980034043929
0.10873100297127442
-0.08155979056540058
-0.02960959127740156
-0.007123087677802354
-0.04129394734321946
-0.14067176053489175
0.1363471237788016
0.0017758097022159652
32
-0.04011042436081435
0.09940322876737044
0.09361054237634864
0.059446544503258134
0.06651699178993593
-0.04701380813060708
-0.10308836382827226
-0.013221659121892637
0.1259651616228327
-0.10088406882014317
0.12118834377796982
0.01925725637428952
0.13197768258620993
-0.01852938578151412
0.00594138878956262
0.04732913301940414
-0.16861097520531795
-0.09407699307950655
0.029673834324549474
0.07194821966046816
0.16138966663774826
0.15353547400950582
0.1516732504796347
-0.05504498441438348
-0.05901043189128059
-0.1687871680989375
0.08701729099807123
-0.003936210596713979
0.0764222216042267
-0.025926407525255723
0.055895361274767595
9.435992609636954E-4
0.0013799916980826563
32
0.11949244352213488
0.058652144241164286
0.04113065901733802
-0.16361185276517579
-0.12052079390091963
0.1058410493683652
0.15829942857306892
0.09433326521875873
0.1647287495273331
-0.14343261368677662
-0.006104477278515982
-0.13302862817595507
-0.013387032369708408
-0.1064398325555802
0.0965093215430319
-0.040892926139815884
-0.07797608989589154
0.004746282197117263
0.12229436654618292
0.0925277822187499
0.037442857262080506
-0.0956642610210915
0.16455854730246378
0.09836316418371134
-0.09928855406322618
-0.032152572825123876
-0.09748870012870928
-0.1149666079646664
-0.015022327332236898
-0.061449294971132266
0.1682346459659825
-0.014919632093399325
4.521860512273451E-4
32
0.021473356128055773
-0.1247432789999491
-0.1284004266719993
-0.16934571588697953
-0.08343769068845852
-0.12953013940039318
-0.06781482578730594
0.021969837818914362
0.044556587579759076
-0.04350887431508599
0.14550300187699566
0.006699797696285053
0.014087021717756512
0.14864741443691373
-0.03999277416031794
0.17912829837460517
-0.1334977718980281
0.11715055238393768
0.16571259317287798
-0.15912939477576904
0.15120444938134667
-0.02765316315277352
0.007562816839077598
0.10961200241175095
-0.05313772794618594
0.1525962419588114
-0.04292788165064778
-0.004129686473317701
0.07446515575159751
-0.08397474919800914
-0.15648159739200934
0.03395852421702207
-1.1728345538535105E-4
32
-0.15483238800536234
0.05730310683962301
-0.1634791749306315
0.11229550932556773
0.06933700671250516
0.07499513912964577
0.10078704632855277
0.09554038679822259
0.009592769468893507
0.16873896720120346
0.16881681979683436
0.10925693391335971
0.13161590457530456
-0.030127190933996285
-0.1394632462857893
0.12165705463287398
-0.05520828857332168
-0.05353442192670206
-0.08046484388370499
0.1710561027273965
0.07759546105141632
-0.11645921225805127
-0.08644981988636886
0.015379906684550814
-0.15231992744141165
0.1401265616681155
-0.0837975640676135
-0.1555273480466993
-0.14812100510292486
-0.10213174392213258
0.14411142525452236
-0.04094007750254095
0.002083034863771039
32
0.06743912948345518
0.0925860591855317
-0.10719976108089789
0.10630262965451691
-0.005365421604265451
0.07084230911742716
0.16988493240207542
0.12761815180409902
0.11146798013501495
-0.05344709413146083
0.03353840084959985
-0.059774945713367146
0.08380509387535733
-0.008296598037981322
0.17320584691983937
0.11585052184338665
0.004997203326150155
0.11590845285237372
0.01263906795458637
0.09183619172479825
-0.15873896392113387
-0.07670934237791915
-0.12719180084747012
-0.07559060646910899
-0.138282516781525
-0.14929889712236766
-0.1585276888912313
0.14816171288355273
-0.03235623709151664
0.07024275497368854
-0.07138258045311346
0.1699013655581821
3.6369835329006124E-5
32
0.06949836899364376
0.13286674133171747
-0.01793309154885865
-0.023645939186014094
0.10365999672820342
-0.09374619203645168
0.04144179165830244
-0.10596063011918237
7.071669087603796E-4
0.14104158893623323
0.14338398248680423
-0.004316692845147335
-0.11782561379322194
0.07888241707742387
-0.06096423020460924
-0.03183698601977246
0.09071071275825358
0.13599564283686474
-0.11388191376956258
-0.15150618297565457
0.047120985843099934
-0.015025487828184945
0.11440591106120085
0.15927418421721767
-0.1701930864623539
-0.14706480302752487
0.16944456503093183
0.002450785224104178
0.195022754785178
-0.14712028897169852
-0.042459622134822794
-0.15877513338201532
3.8977822634946545E-4
8
16
0.06334604322910309
-0.16260160932310472
0.05027990148483828
0.020532315596938133
0.24730199285967217
0.0878273670002662
-0.03358784114836597
0.0093002924695611
0.19495682454841134
-0.0422944902688446
-0.2131871274624843
-0.13271453187217888
-0.042092893305215276
-0.2090030176240141
0.0030646222035295018
0.029422979921372956
-0.007330958290817838
16
0.13931932999914176
-0.03395311237141712
-0.2299488993677702
0.14343710243701935
-0.0988198475667276
0.2176407015116175
-0.00386680055226347
0.07015914469957352
0.08458679143713954
0.28488739559060355
0.060431341569500724
-0.116398839850361
-0.013429263366431746
0.18989538666443598
0.090608729712188
0.2326848661866272
0.003411648062263985
16
0.18250700703785092
0.1859224111331339
0.17780072540908237
0.05203705281019211
0.0844994809150603
-0.22381611991220926
0.12274324817118987
0.009945584461092949
0.0340051188234513
0.08723162772812189
0.20185048380804857
0.025142718106584
0.1617272373416177
-0.09884738181765759
0.2316271592047959
-0.10066177491099014
-0.0014718398385727837
16
-0.19392068684101105
-0.04461563752417343
-0.1673570518999554
-0.16748666763305664
0.208360462707537
0.14080354571342468
0.22904767740194332
-0.07884994894266129
-0.0730169286514393
-0.123306070892807
-0.06420009257043734
-0.1173402020535097
0.2051445995773005
0.09893905579343314
0.09748225699862975
-0.25544451348869107
4.4299666306603087E-4
16
0.15209170032712171
0.037570764387872393
-0.22087562084197998
0.11426489055156708
-0.23371383547782898
0.07499010115861893
0.10767110852629723
-0.1895436942577362
-0.04859637259281329
0.14998313630909518
-0.10131082692908772
0.21109426818872584
0.0509002178310657
-0.07384661585092545
-0.21765490566965828
0.08546403573045165
-6.268424164784098E-4
16
0.10312048345804214
-0.10021887719631195
-0.18013262748718262
-0.20912903547286987
-0.08539507538080215
-0.2087222784757614
-0.10114084929227829
-0.050901588052511215
-0.10702639073133469
0.07801499217748642
-0.21759401261806488
-0.24063622951507568
-0.24102522432804108
0.03296099230647087
0.06918812543153763
0.009076916612684727
0.0
16
0.04838030816556743
0.2350615139341789
0.16179178487335477
-0.14761824905872345
0.2228066708982016
-0.09036455303430557
-0.015789941584379096
-0.10295405983924866
-0.15682375757628728
-0.21348097713930514
-0.18046698957231117
0.152582521082858
-0.13656118512153625
-0.19262715730987234
0.02417271825397777
-0.1065192447116032
0.0011477467617284354
16
0.06635942981094325
0.13543579868930702
-0.14877383410930634
0.07893718034029007
0.0749015063047409
0.05745485797524452
-0.23036994887735673
-0.04898272827267647
0.05762922926265826
-0.2337815434182649
-0.19831419784560259
0.03071690618878473
-0.012002058327198029
0.05416330322623253
0.060374161350304295
-0.1413532408059671
-1.0045066335720443E-4
1
8
0.3310421966507905
0.2009971173552322
-0.07692191219314624
-0.21641193852037968
-0.15099238905683543
-0.19482043549372677
0.31680726506736684
-0.33046698025536575
0.017879890535973646
